8.490674355881213664e-01,-8.275729231003632336e-01,4.131788997874507041e-01,6.692047653271080421e-01,-9.532091071269798155e-01,-5.649621232753583300e-01,-3.188908948420213219e-02
-2.596651586035382819e-01,7.915166007704131923e-01,7.053871214302813719e-01,-7.307315921472825604e-01,3.987897786045290771e-01,5.890311806662461569e-01,7.592522866073960763e-01
-8.596522477386181471e-01,1.471306675556037502e-01,4.515193063472604074e+00,-2.335075591383087623e+00,-1.790479240295245189e+00,-1.482466302375151368e-01,-1.228721563025803265e+00
-9.586243024818205116e-01,-4.441210025543770867e-02,-1.597747177194431822e+00,1.766253833172563681e+00,1.795205613017499813e+00,-6.675486033985660317e-01,-1.253669017298742805e+00
-5.526223216438383989e-01,-7.332859335815982149e-01,5.776294712896112848e-01,4.243618153913125690e-01,3.065327782486501618e-01,2.399250841217907271e-01,-9.426639634873276163e-01
-4.318645721273284832e-01,4.875991244812762776e-02,-6.835687225197183414e-01,2.668780206665473109e+00,-9.356802512172093245e-01,2.672326777985584823e+00,9.741962631267822026e-01
-5.657039175189663149e-01,1.986102538320729360e+00,-6.318971160516609169e-03,6.573931526722509577e-01,2.265237676191468541e+00,4.732387863785416683e-04,1.280270045059237249e+00