6.237038063579304348e-01,2.642771692941181527e-01,-6.030646528264418382e-01,-7.688979052142900228e-01,3.659187726649180683e-01,1.201828097237717802e-01
7.255642004640676657e-01,-1.035631886818071667e-01,-4.831050178358726743e-01,-4.924469387171930279e-01,1.420549893024448451e+00,4.122410517462904433e-01
-2.830742429791378800e+00,-6.460854854144154613e-01,3.670278169958099745e+00,-1.053903959059977691e+00,-6.316501792487612399e-02,1.534187222324358557e-01
-2.765099267719069998e-01,1.984416505324611224e+00,-7.104058520024871815e-01,1.852991248708554473e+00,-2.457889937531815061e+00,7.127179622729958863e-01
1.372615633173480676e+00,-1.553356291601122319e+00,-2.011836393874232520e+00,1.615806658498964987e+00,9.078652224251023695e-01,4.600451713777212737e-01
-1.072622940578542794e+00,2.259519755693639720e+00,-4.176679858954202573e-01,-5.395599718050098081e-01,-3.375641716768574274e-01,8.845753142621949339e-01
1.544130980668442676e+00,6.420490261420259692e-01,-7.210643682989655856e-01,-9.922121758389568225e-01,9.279247956961316213e-01,8.257417416312698988e-01